digraph Tree {
node [shape=box, style="filled, rounded", color="black", fontname="helvetica"] ;
edge [fontname="helvetica"] ;
0 [label="petal length (cm) <= 2.6\ngini = 0.67\nsamples = 97\nvalue = [52, 52, 46]\nclass = setosa", fillcolor="#ffffff"] ;
1 [label="gini = 0.0\nsamples = 32\nvalue = [52, 0, 0]\nclass = setosa", fillcolor="#e58139"] ;
0 -> 1 [labeldistance=2.5, labelangle=45, headlabel="True"] ;
2 [label="petal width (cm) <= 1.75\ngini = 0.5\nsamples = 65\nvalue = [0, 52, 46]\nclass = versicolor", fillcolor="#e8fcf0"] ;
0 -> 2 [labeldistance=2.5, labelangle=-45, headlabel="False"] ;
3 [label="petal length (cm) <= 5.35\ngini = 0.13\nsamples = 35\nvalue = [0, 51, 4]\nclass = versicolor", fillcolor="#49e78b"] ;
2 -> 3 ;
4 [label="petal width (cm) <= 1.65\ngini = 0.07\nsamples = 33\nvalue = [0, 51, 2]\nclass = versicolor", fillcolor="#41e686"] ;
3 -> 4 ;
5 [label="petal width (cm) <= 1.45\ngini = 0.04\nsamples = 31\nvalue = [0, 50, 1]\nclass = versicolor", fillcolor="#3de684"] ;
4 -> 5 ;
6 [label="gini = 0.0\nsamples = 22\nvalue = [0, 37, 0]\nclass = versicolor", fillcolor="#39e581"] ;
5 -> 6 ;
7 [label="sepal width (cm) <= 2.35\ngini = 0.13\nsamples = 9\nvalue = [0, 13, 1]\nclass = versicolor", fillcolor="#48e78b"] ;
5 -> 7 ;
8 [label="sepal length (cm) <= 6.1\ngini = 0.5\nsamples = 2\nvalue = [0, 1, 1]\nclass = versicolor", fillcolor="#ffffff"] ;
7 -> 8 ;
9 [label="gini = 0.0\nsamples = 1\nvalue = [0, 0, 1]\nclass = virginica", fillcolor="#8139e5"] ;
8 -> 9 ;
10 [label="gini = 0.0\nsamples = 1\nvalue = [0, 1, 0]\nclass = versicolor", fillcolor="#39e581"] ;
8 -> 10 ;
11 [label="gini = 0.0\nsamples = 7\nvalue = [0, 12, 0]\nclass = versicolor", fillcolor="#39e581"] ;
7 -> 11 ;
12 [label="petal length (cm) <= 4.75\ngini = 0.5\nsamples = 2\nvalue = [0, 1, 1]\nclass = versicolor", fillcolor="#ffffff"] ;
4 -> 12 ;
13 [label="gini = 0.0\nsamples = 1\nvalue = [0, 0, 1]\nclass = virginica", fillcolor="#8139e5"] ;
12 -> 13 ;
14 [label="gini = 0.0\nsamples = 1\nvalue = [0, 1, 0]\nclass = versicolor", fillcolor="#39e581"] ;
12 -> 14 ;
15 [label="gini = 0.0\nsamples = 2\nvalue = [0, 0, 2]\nclass = virginica", fillcolor="#8139e5"] ;
3 -> 15 ;
16 [label="sepal length (cm) <= 5.95\ngini = 0.05\nsamples = 30\nvalue = [0, 1, 42]\nclass = virginica", fillcolor="#843ee6"] ;
2 -> 16 ;
17 [label="petal length (cm) <= 4.85\ngini = 0.2\nsamples = 5\nvalue = [0, 1, 8]\nclass = virginica", fillcolor="#9152e8"] ;
16 -> 17 ;
18 [label="gini = 0.0\nsamples = 1\nvalue = [0, 1, 0]\nclass = versicolor", fillcolor="#39e581"] ;
17 -> 18 ;
19 [label="gini = 0.0\nsamples = 4\nvalue = [0, 0, 8]\nclass = virginica", fillcolor="#8139e5"] ;
17 -> 19 ;
20 [label="gini = 0.0\nsamples = 25\nvalue = [0, 0, 34]\nclass = virginica", fillcolor="#8139e5"] ;
16 -> 20 ;
}